{
  "type": "lgbm",
  "version": 2,
  "symbol": "ES=F",
  "session": "ETH",
  "regime": "CHOP",
  "direction": "short",
  "featureNames": [
    "ema9_dist",
    "ema21_dist",
    "ema50_dist",
    "ema200_dist",
    "ema9_21_gap",
    "ema21_50_gap",
    "rsi",
    "macd_hist",
    "macd_line",
    "adx",
    "atr_pct",
    "atr_percentile",
    "bb_z",
    "bb_bandwidth",
    "vol_z",
    "ret_1",
    "ret_5",
    "ret_20",
    "body_ratio",
    "wick_asym",
    "hour_of_day",
    "session_rth",
    "is_equity_family",
    "is_cl_family",
    "is_gc_family",
    "day_of_week_norm",
    "eia_window",
    "london_session",
    "vwap_dev_atr",
    "intraday_mom",
    "gap_atr",
    "vol_trend"
  ],
  "threshold": 0.58,
  "aggregate": {
    "winRate": 0.7061256727436211,
    "profitFactor": 2.9357843137254904,
    "totalTestTrades": 41,
    "sharpeRatio": 3.1173367439877473
  },
  "trainedAt": "2026-05-28T17:52:51.716876+00:00",
  "model": {
    "name": "tree",
    "version": "v4",
    "num_class": 1,
    "num_tree_per_iteration": 1,
    "label_index": 0,
    "max_feature_idx": 31,
    "objective": "binary sigmoid:1",
    "average_output": false,
    "feature_names": [
      "Column_0",
      "Column_1",
      "Column_2",
      "Column_3",
      "Column_4",
      "Column_5",
      "Column_6",
      "Column_7",
      "Column_8",
      "Column_9",
      "Column_10",
      "Column_11",
      "Column_12",
      "Column_13",
      "Column_14",
      "Column_15",
      "Column_16",
      "Column_17",
      "Column_18",
      "Column_19",
      "Column_20",
      "Column_21",
      "Column_22",
      "Column_23",
      "Column_24",
      "Column_25",
      "Column_26",
      "Column_27",
      "Column_28",
      "Column_29",
      "Column_30",
      "Column_31"
    ],
    "monotone_constraints": [],
    "feature_infos": {
      "Column_0": {
        "min_value": -0.010602435097098352,
        "max_value": 0.013529051095247269,
        "values": []
      },
      "Column_1": {
        "min_value": -0.012451156042516232,
        "max_value": 0.018911533057689667,
        "values": []
      },
      "Column_2": {
        "min_value": -0.02070239558815956,
        "max_value": 0.02421664446592331,
        "values": []
      },
      "Column_3": {
        "min_value": -0.03315552696585655,
        "max_value": 0.045669957995414734,
        "values": []
      },
      "Column_4": {
        "min_value": -0.004807576537132263,
        "max_value": 0.0066575068049132815,
        "values": []
      },
      "Column_5": {
        "min_value": -0.00871447008103132,
        "max_value": 0.006955263204872608,
        "values": []
      },
      "Column_6": {
        "min_value": 12.196385383605957,
        "max_value": 84.29489135742188,
        "values": []
      },
      "Column_7": {
        "min_value": -11.635684967041016,
        "max_value": 9.459600448608398,
        "values": []
      },
      "Column_8": {
        "min_value": -26.724824905395508,
        "max_value": 33.19690704345703,
        "values": []
      },
      "Column_9": {
        "min_value": 5.632059574127197,
        "max_value": 21.999990463256836,
        "values": []
      },
      "Column_10": {
        "min_value": 7.928066770546138e-05,
        "max_value": 0.012376375496387482,
        "values": []
      },
      "Column_11": {
        "min_value": 0.10000000149011612,
        "max_value": 0.9800000190734864,
        "values": []
      },
      "Column_12": {
        "min_value": -4.291263580322266,
        "max_value": 4.184382915496826,
        "values": []
      },
      "Column_13": {
        "min_value": 0.00013148313155397773,
        "max_value": 0.06715630739927292,
        "values": []
      },
      "Column_14": {
        "min_value": -2.2253780364990234,
        "max_value": 6.9697418212890625,
        "values": []
      },
      "Column_15": {
        "min_value": -0.011910398490726948,
        "max_value": 0.013879678212106228,
        "values": []
      },
      "Column_16": {
        "min_value": -0.027144458144903183,
        "max_value": 0.027359124273061752,
        "values": []
      },
      "Column_17": {
        "min_value": -0.0281573124229908,
        "max_value": 0.033410582691431046,
        "values": []
      },
      "Column_18": {
        "min_value": 0,
        "max_value": 1,
        "values": []
      },
      "Column_19": {
        "min_value": -1,
        "max_value": 1,
        "values": []
      },
      "Column_20": {
        "min_value": 0,
        "max_value": 23,
        "values": []
      },
      "Column_25": {
        "min_value": 0,
        "max_value": 1,
        "values": []
      },
      "Column_28": {
        "min_value": -16.503204345703125,
        "max_value": 28.067243576049805,
        "values": []
      },
      "Column_29": {
        "min_value": -47.247886657714844,
        "max_value": 60.14787292480469,
        "values": []
      },
      "Column_30": {
        "min_value": -8.58287525177002,
        "max_value": 4.725034713745117,
        "values": []
      },
      "Column_31": {
        "min_value": 0.011880366131663322,
        "max_value": 3.480272054672241,
        "values": []
      }
    },
    "tree_info": [
      {
        "tree_index": 0,
        "num_leaves": 31,
        "num_cat": 0,
        "shrinkage": 1,
        "tree_structure": {
          "split_index": 0,
          "split_feature": 20,
          "split_gain": 160.33999633789062,
          "threshold": 14.500000000000002,
          "decision_type": "<=",
          "default_left": true,
          "missing_type": "None",
          "internal_value": -0.659074,
          "internal_weight": 15738.8,
          "internal_count": 70043,
          "left_child": {
            "split_index": 1,
            "split_feature": 20,
            "split_gain": 412.5660095214844,
            "threshold": 3.5000000000000004,
            "decision_type": "<=",
            "default_left": true,
            "missing_type": "None",
            "internal_value": -0.656223,
            "internal_weight": 8342.97,
            "internal_count": 37129,
            "left_child": {
              "split_index": 13,
              "split_feature": 7,
              "split_gain": 48.65409851074219,
              "threshold": -1.265817046165466,
              "decision_type": "<=",
              "default_left": true,
              "missing_type": "None",
              "internal_value": -0.66279,
              "internal_weight": 4236.99,
              "internal_count": 18856,
              "left_child": {
                "leaf_index": 0,
                "leaf_value": -0.634628682270163,
                "leaf_weight": 54.377974301576614,
                "leaf_count": 242
              },
              "right_child": {
                "split_index": 14,
                "split_feature": 11,
                "split_gain": 56.18119812011719,
                "threshold": 0.28499999642372137,
                "decision_type": "<=",
                "default_left": true,
                "missing_type": "None",
                "internal_value": -0.663157,
                "internal_weight": 4182.61,
                "internal_count": 18614,
                "left_child": {
                  "leaf_index": 14,
                  "leaf_value": -0.6586813237521699,
                  "leaf_weight": 1573.3660167753696,
                  "leaf_count": 7002
                },
                "right_child": {
                  "split_index": 17,
                  "split_feature": 25,
                  "split_gain": 36.57120132446289,
                  "threshold": 0.8750000000000001,
                  "decision_type": "<=",
                  "default_left": true,
                  "missing_type": "None",
                  "internal_value": -0.665857,
                  "internal_weight": 2609.24,
                  "internal_count": 11612,
                  "left_child": {
                    "leaf_index": 15,
                    "leaf_value": -0.6640485087165834,
                    "leaf_weight": 2073.3287970274687,
                    "leaf_count": 9227
                  },
                  "right_child": {
                    "leaf_index": 18,
                    "leaf_value": -0.6728454267229871,
                    "leaf_weight": 535.9151599556208,
                    "leaf_count": 2385
                  }
                }
              }
            },
            "right_child": {
              "split_index": 10,
              "split_feature": 20,
              "split_gain": 53.7130012512207,
              "threshold": 13.500000000000002,
              "decision_type": "<=",
              "default_left": true,
              "missing_type": "None",
              "internal_value": -0.649446,
              "internal_weight": 4105.99,
              "internal_count": 18273,
              "left_child": {
                "split_index": 11,
                "split_feature": 20,
                "split_gain": 82.72940063476562,
                "threshold": 4.500000000000001,
                "decision_type": "<=",
                "default_left": true,
                "missing_type": "None",
                "internal_value": -0.647882,
                "internal_weight": 3399.75,
                "internal_count": 15130,
                "left_child": {
                  "split_index": 26,
                  "split_feature": 10,
                  "split_gain": 29.944299697875977,
                  "threshold": 0.0004858673346461729,
                  "decision_type": "<=",
                  "default_left": true,
                  "missing_type": "None",
                  "internal_value": -0.654757,
                  "internal_weight": 1077.45,
                  "internal_count": 4795,
                  "left_child": {
                    "split_index": 27,
                    "split_feature": 8,
                    "split_gain": 39.160301208496094,
                    "threshold": 0.36472621560096746,
                    "decision_type": "<=",
                    "default_left": true,
                    "missing_type": "None",
                    "internal_value": -0.656289,
                    "internal_weight": 985.545,
                    "internal_count": 4386,
                    "left_child": {
                      "split_index": 29,
                      "split_feature": 7,
                      "split_gain": 31.84320068359375,
                      "threshold": 0.20798575878143313,
                      "decision_type": "<=",
                      "default_left": true,
                      "missing_type": "None",
                      "internal_value": -0.652384,
                      "internal_weight": 691.184,
                      "internal_count": 3076,
                      "left_child": {
                        "leaf_index": 2,
                        "leaf_value": -0.6546735139066693,
                        "leaf_weight": 614.1115858107805,
                        "leaf_count": 2733
                      },
                      "right_child": {
                        "leaf_index": 30,
                        "leaf_value": -0.6342121069731933,
                        "leaf_weight": 77.0729139894247,
                        "leaf_count": 343
                      }
                    },
                    "right_child": {
                      "leaf_index": 28,
                      "leaf_value": -0.665445598809811,
                      "leaf_weight": 294.36010882258415,
                      "leaf_count": 1310
                    }
                  },
                  "right_child": {
                    "split_index": 28,
                    "split_feature": 29,
                    "split_gain": 31.984600067138672,
                    "threshold": 3.7876626253128056,
                    "decision_type": "<=",
                    "default_left": true,
                    "missing_type": "None",
                    "internal_value": -0.638384,
                    "internal_weight": 91.9033,
                    "internal_count": 409,
                    "left_child": {
                      "leaf_index": 27,
                      "leaf_value": -0.6465846629184768,
                      "leaf_weight": 75.94940212368965,
                      "leaf_count": 338
                    },
                    "right_child": {
                      "leaf_index": 29,
                      "leaf_value": -0.5998493425947751,
                      "leaf_weight": 15.953868493437765,
                      "leaf_count": 71
                    }
                  }
                },
                "right_child": {
                  "split_index": 18,
                  "split_feature": 10,
                  "split_gain": 33.9193000793457,
                  "threshold": 0.00032954158086795365,
                  "decision_type": "<=",
                  "default_left": true,
                  "missing_type": "None",
                  "internal_value": -0.644694,
                  "internal_weight": 2322.3,
                  "internal_count": 10335,
                  "left_child": {
                    "split_index": 23,
                    "split_feature": 5,
                    "split_gain": 30.27790069580078,
                    "threshold": -6.445949111366643e-05,
                    "decision_type": "<=",
                    "default_left": true,
                    "missing_type": "None",
                    "internal_value": -0.647904,
                    "internal_weight": 1304.4,
                    "internal_count": 5805,
                    "left_child": {
                      "split_index": 24,
                      "split_feature": 8,
                      "split_gain": 39.42919921875,
                      "threshold": -0.38733486831188196,
                      "decision_type": "<=",
                      "default_left": true,
                      "missing_type": "None",
                      "internal_value": -0.639434,
                      "internal_weight": 294.585,
                      "internal_count": 1311,
                      "left_child": {
                        "leaf_index": 12,
                        "leaf_value": -0.6507960397253206,
                        "leaf_weight": 142.68600694835186,
                        "leaf_count": 635
                      },
                      "right_child": {
                        "split_index": 25,
                        "split_feature": 7,
                        "split_gain": 36.215999603271484,
                        "threshold": 0.06697347760200502,
                        "decision_type": "<=",
                        "default_left": true,
                        "missing_type": "None",
                        "internal_value": -0.628793,
                        "internal_weight": 151.899,
                        "internal_count": 676,
                        "left_child": {
                          "leaf_index": 25,
                          "leaf_value": -0.6102446637650633,
                          "leaf_weight": 58.42261701822281,
                          "leaf_count": 260
                        },
                        "right_child": {
                          "leaf_index": 26,
                          "leaf_value": -0.6404582300668732,
                          "leaf_weight": 93.4761872291565,
                          "leaf_count": 416
                        }
                      }
                    },
                    "right_child": {
                      "leaf_index": 24,
                      "leaf_value": -0.6503795361925792,
                      "leaf_weight": 1009.8124649226665,
                      "leaf_count": 4494
                    }
                  },
                  "right_child": {
                    "leaf_index": 19,
                    "leaf_value": -0.6405844189339825,
                    "leaf_weight": 1017.9017503559589,
                    "leaf_count": 4530
                  }
                }
              },
              "right_child": {
                "split_index": 15,
                "split_feature": 29,
                "split_gain": 48.24660110473633,
                "threshold": 7.387266397476197,
                "decision_type": "<=",
                "default_left": true,
                "missing_type": "None",
                "internal_value": -0.65698,
                "internal_weight": 706.24,
                "internal_count": 3143,
                "left_child": {
                  "split_index": 16,
                  "split_feature": 8,
                  "split_gain": 36.989498138427734,
                  "threshold": -0.31585349142551417,
                  "decision_type": "<=",
                  "default_left": true,
                  "missing_type": "None",
                  "internal_value": -0.659036,
                  "internal_weight": 661.074,
                  "internal_count": 2942,
                  "left_child": {
                    "leaf_index": 11,
                    "leaf_value": -0.6495010400437213,
                    "leaf_weight": 235.71278943121433,
                    "leaf_count": 1049
                  },
                  "right_child": {
                    "leaf_index": 17,
                    "leaf_value": -0.6643137889265012,
                    "leaf_weight": 425.36159236729145,
                    "leaf_count": 1893
                  }
                },
                "right_child": {
                  "split_index": 22,
                  "split_feature": 10,
                  "split_gain": 31.521400451660156,
                  "threshold": 0.0006907143688295038,
                  "decision_type": "<=",
                  "default_left": true,
                  "missing_type": "None",
                  "internal_value": -0.627016,
                  "internal_weight": 45.1652,
                  "internal_count": 201,
                  "left_child": {
                    "leaf_index": 16,
                    "leaf_value": -0.6066951513023743,
                    "leaf_weight": 27.188987150788307,
                    "leaf_count": 121
                  },
                  "right_child": {
                    "leaf_index": 23,
                    "leaf_value": -0.6580378642038673,
                    "leaf_weight": 17.976189851760864,
                    "leaf_count": 80
                  }
                }
              }
            }
          },
          "right_child": {
            "split_index": 2,
            "split_feature": 31,
            "split_gain": 113.30500030517578,
            "threshold": 1.5692427754402163,
            "decision_type": "<=",
            "default_left": true,
            "missing_type": "None",
            "internal_value": -0.66229,
            "internal_weight": 7395.85,
            "internal_count": 32914,
            "left_child": {
              "split_index": 3,
              "split_feature": 31,
              "split_gain": 93.3656997680664,
              "threshold": 0.44797797501087194,
              "decision_type": "<=",
              "default_left": true,
              "missing_type": "None",
              "internal_value": -0.661303,
              "internal_weight": 6908.47,
              "internal_count": 30745,
              "left_child": {
                "split_index": 6,
                "split_feature": 11,
                "split_gain": 79.55560302734375,
                "threshold": 0.2950000017881394,
                "decision_type": "<=",
                "default_left": true,
                "missing_type": "None",
                "internal_value": -0.667586,
                "internal_weight": 1627.07,
                "internal_count": 7241,
                "left_child": {
                  "split_index": 19,
                  "split_feature": 5,
                  "split_gain": 33.81370162963867,
                  "threshold": 0.0005856484349351377,
                  "decision_type": "<=",
                  "default_left": true,
                  "missing_type": "None",
                  "internal_value": -0.662365,
                  "internal_weight": 1005.32,
                  "internal_count": 4474,
                  "left_child": {
                    "split_index": 20,
                    "split_feature": 10,
                    "split_gain": 34.79180145263672,
                    "threshold": 0.0004317696730140597,
                    "decision_type": "<=",
                    "default_left": true,
                    "missing_type": "None",
                    "internal_value": -0.660433,
                    "internal_weight": 895.439,
                    "internal_count": 3985,
                    "left_child": {
                      "split_index": 21,
                      "split_feature": 2,
                      "split_gain": 33.12860107421875,
                      "threshold": 0.000254899321589619,
                      "decision_type": "<=",
                      "default_left": true,
                      "missing_type": "None",
                      "internal_value": -0.666049,
                      "internal_weight": 470.976,
                      "internal_count": 2096,
                      "left_child": {
                        "leaf_index": 1,
                        "leaf_value": -0.6723700748712886,
                        "leaf_weight": 288.7425494939089,
                        "leaf_count": 1285
                      },
                      "right_child": {
                        "leaf_index": 22,
                        "leaf_value": -0.6560477810063191,
                        "leaf_weight": 182.23362462222576,
                        "leaf_count": 811
                      }
                    },
                    "right_child": {
                      "leaf_index": 21,
                      "leaf_value": -0.6542087955993879,
                      "leaf_weight": 424.4627828747034,
                      "leaf_count": 1889
                    }
                  },
                  "right_child": {
                    "leaf_index": 20,
                    "leaf_value": -0.6780655397565079,
                    "leaf_weight": 109.87946046888828,
                    "leaf_count": 489
                  }
                },
                "right_child": {
                  "leaf_index": 7,
                  "leaf_value": -0.6760216739071211,
                  "leaf_weight": 621.7514664977789,
                  "leaf_count": 2767
                }
              },
              "right_child": {
                "split_index": 4,
                "split_feature": 10,
                "split_gain": 122.12000274658203,
                "threshold": 0.000375546602299437,
                "decision_type": "<=",
                "default_left": true,
                "missing_type": "None",
                "internal_value": -0.659367,
                "internal_weight": 5281.4,
                "internal_count": 23504,
                "left_child": {
                  "split_index": 5,
                  "split_feature": 28,
                  "split_gain": 112.85600280761719,
                  "threshold": -0.10242060944437979,
                  "decision_type": "<=",
                  "default_left": true,
                  "missing_type": "None",
                  "internal_value": -0.644113,
                  "internal_weight": 433.451,
                  "internal_count": 1929,
                  "left_child": {
                    "leaf_index": 4,
                    "leaf_value": -0.6661778756999287,
                    "leaf_weight": 140.66368559002876,
                    "leaf_count": 626
                  },
                  "right_child": {
                    "leaf_index": 6,
                    "leaf_value": -0.6335030037935729,
                    "leaf_weight": 292.7871922105551,
                    "leaf_count": 1303
                  }
                },
                "right_child": {
                  "split_index": 7,
                  "split_feature": 11,
                  "split_gain": 75.78700256347656,
                  "threshold": 0.7950000166893006,
                  "decision_type": "<=",
                  "default_left": true,
                  "missing_type": "None",
                  "internal_value": -0.660731,
                  "internal_weight": 4847.95,
                  "internal_count": 21575,
                  "left_child": {
                    "split_index": 9,
                    "split_feature": 7,
                    "split_gain": 56.56660079956055,
                    "threshold": 0.23554143309593203,
                    "decision_type": "<=",
                    "default_left": true,
                    "missing_type": "None",
                    "internal_value": -0.658877,
                    "internal_weight": 3895.22,
                    "internal_count": 17335,
                    "left_child": {
                      "split_index": 12,
                      "split_feature": 10,
                      "split_gain": 48.69269943237305,
                      "threshold": 0.0007386050710920246,
                      "decision_type": "<=",
                      "default_left": true,
                      "missing_type": "None",
                      "internal_value": -0.655925,
                      "internal_weight": 2337.35,
                      "internal_count": 10402,
                      "left_child": {
                        "leaf_index": 5,
                        "leaf_value": -0.6521686177850383,
                        "leaf_weight": 1333.8332870006561,
                        "leaf_count": 5936
                      },
                      "right_child": {
                        "leaf_index": 13,
                        "leaf_value": -0.6609142948828978,
                        "leaf_weight": 1003.5207984745502,
                        "leaf_count": 4466
                      }
                    },
                    "right_child": {
                      "leaf_index": 10,
                      "leaf_value": -0.6633041294586794,
                      "leaf_weight": 1557.861553028226,
                      "leaf_count": 6933
                    }
                  },
                  "right_child": {
                    "leaf_index": 8,
                    "leaf_value": -0.668315175634966,
                    "leaf_weight": 952.7380621433258,
                    "leaf_count": 4240
                  }
                }
              }
            },
            "right_child": {
              "split_index": 8,
              "split_feature": 20,
              "split_gain": 64.12169647216797,
              "threshold": 19.500000000000004,
              "decision_type": "<=",
              "default_left": true,
              "missing_type": "None",
              "internal_value": -0.676269,
              "internal_weight": 487.379,
              "internal_count": 2169,
              "left_child": {
                "leaf_index": 3,
                "leaf_value": -0.6580881091439319,
                "leaf_weight": 128.30505506694317,
                "leaf_count": 571
              },
              "right_child": {
                "leaf_index": 9,
                "leaf_value": -0.68277267213419,
                "leaf_weight": 359.07439228892326,
                "leaf_count": 1598
              }
            }
          }
        }
      },
      {
        "tree_index": 1,
        "num_leaves": 31,
        "num_cat": 0,
        "shrinkage": 0.03,
        "tree_structure": {
          "split_index": 0,
          "split_feature": 20,
          "split_gain": 150.89599609375,
          "threshold": 14.500000000000002,
          "decision_type": "<=",
          "default_left": true,
          "missing_type": "None",
          "internal_value": -3.02653e-07,
          "internal_weight": 15738.5,
          "internal_count": 70043,
          "left_child": {
            "split_index": 1,
            "split_feature": 20,
            "split_gain": 387.09600830078125,
            "threshold": 3.5000000000000004,
            "decision_type": "<=",
            "default_left": true,
            "missing_type": "None",
            "internal_value": 0.00276257,
            "internal_weight": 8350.34,
            "internal_count": 37129,
            "left_child": {
              "split_index": 6,
              "split_feature": 30,
              "split_gain": 68.44170379638672,
              "threshold": 0.2347597032785416,
              "decision_type": "<=",
              "default_left": true,
              "missing_type": "None",
              "internal_value": -0.00360883,
              "internal_weight": 4231.95,
              "internal_count": 18856,
              "left_child": {
                "split_index": 11,
                "split_feature": 3,
                "split_gain": 56.108299255371094,
                "threshold": 0.0020649329526349906,
                "decision_type": "<=",
                "default_left": true,
                "missing_type": "None",
                "internal_value": -0.00400071,
                "internal_weight": 4187.98,
                "internal_count": 18660,
                "left_child": {
                  "split_index": 12,
                  "split_feature": 11,
                  "split_gain": 56.98139953613281,
                  "threshold": 0.28499999642372137,
                  "decision_type": "<=",
                  "default_left": true,
                  "missing_type": "None",
                  "internal_value": -0.00228901,
                  "internal_weight": 3370.27,
                  "internal_count": 15017,
                  "left_child": {
                    "leaf_index": 0,
                    "leaf_value": 0.002796947023597088,
                    "leaf_weight": 1247.7439700365067,
                    "leaf_count": 5552
                  },
                  "right_child": {
                    "split_index": 13,
                    "split_feature": 7,
                    "split_gain": 61.03850173950195,
                    "threshold": -0.9851568341255187,
                    "decision_type": "<=",
                    "default_left": true,
                    "missing_type": "None",
                    "internal_value": -0.00528025,
                    "internal_weight": 2122.52,
                    "internal_count": 9465,
                    "left_child": {
                      "leaf_index": 13,
                      "leaf_value": 0.024875942382624795,
                      "leaf_weight": 58.601908162236214,
                      "leaf_count": 260
                    },
                    "right_child": {
                      "leaf_index": 14,
                      "leaf_value": -0.0061391015435675635,
                      "leaf_weight": 2063.9211365133524,
                      "leaf_count": 9205
                    }
                  }
                },
                "right_child": {
                  "split_index": 15,
                  "split_feature": 13,
                  "split_gain": 50.40909957885742,
                  "threshold": 0.002081383601762355,
                  "decision_type": "<=",
                  "default_left": true,
                  "missing_type": "None",
                  "internal_value": -0.0110508,
                  "internal_weight": 817.716,
                  "internal_count": 3643,
                  "left_child": {
                    "leaf_index": 12,
                    "leaf_value": -0.013750042450315168,
                    "leaf_weight": 722.8958140015602,
                    "leaf_count": 3221
                  },
                  "right_child": {
                    "leaf_index": 16,
                    "leaf_value": 0.009489319235810346,
                    "leaf_weight": 94.82000604271889,
                    "leaf_count": 422
                  }
                }
              },
              "right_child": {
                "split_index": 21,
                "split_feature": 4,
                "split_gain": 39.7952995300293,
                "threshold": 1.7040302736859306e-05,
                "decision_type": "<=",
                "default_left": true,
                "missing_type": "None",
                "internal_value": 0.0335782,
                "internal_weight": 43.9633,
                "internal_count": 196,
                "left_child": {
                  "leaf_index": 7,
                  "leaf_value": 0.012324961458603734,
                  "leaf_weight": 28.49038551747799,
                  "leaf_count": 127
                },
                "right_child": {
                  "leaf_index": 22,
                  "leaf_value": 0.07218877542404441,
                  "leaf_weight": 15.472926303744314,
                  "leaf_count": 69
                }
              }
            },
            "right_child": {
              "split_index": 16,
              "split_feature": 20,
              "split_gain": 50.16910171508789,
              "threshold": 13.500000000000002,
              "decision_type": "<=",
              "default_left": true,
              "missing_type": "None",
              "internal_value": 0.0093103,
              "internal_weight": 4118.39,
              "internal_count": 18273,
              "left_child": {
                "split_index": 17,
                "split_feature": 20,
                "split_gain": 77.09649658203125,
                "threshold": 4.500000000000001,
                "decision_type": "<=",
                "default_left": true,
                "missing_type": "None",
                "internal_value": 0.0108174,
                "internal_weight": 3411.71,
                "internal_count": 15130,
                "left_child": {
                  "leaf_index": 2,
                  "leaf_value": 0.0041815928965780215,
                  "leaf_weight": 1078.8979872465134,
                  "leaf_count": 4795
                },
                "right_child": {
                  "split_index": 23,
                  "split_feature": 13,
                  "split_gain": 37.323299407958984,
                  "threshold": 0.001336635439656675,
                  "decision_type": "<=",
                  "default_left": true,
                  "missing_type": "None",
                  "internal_value": 0.0138848,
                  "internal_weight": 2332.81,
                  "internal_count": 10335,
                  "left_child": {
                    "split_index": 24,
                    "split_feature": 3,
                    "split_gain": 42.35169982910156,
                    "threshold": -0.0023542084963992234,
                    "decision_type": "<=",
                    "default_left": true,
                    "missing_type": "None",
                    "internal_value": 0.0112064,
                    "internal_weight": 1559.34,
                    "internal_count": 6912,
                    "left_child": {
                      "leaf_index": 18,
                      "leaf_value": 0.04012366925986788,
                      "leaf_weight": 44.27029085159302,
                      "leaf_count": 196
                    },
                    "right_child": {
                      "leaf_index": 25,
                      "leaf_value": 0.01035686017021657,
                      "leaf_weight": 1515.0724643617868,
                      "leaf_count": 6716
                    }
                  },
                  "right_child": {
                    "leaf_index": 24,
                    "leaf_value": 0.01927871533772267,
                    "leaf_weight": 773.4657537639141,
                    "leaf_count": 3423
                  }
                }
              },
              "right_child": {
                "split_index": 18,
                "split_feature": 29,
                "split_gain": 44.917598724365234,
                "threshold": 7.387266397476197,
                "decision_type": "<=",
                "default_left": true,
                "missing_type": "None",
                "internal_value": 0.0020295,
                "internal_weight": 706.688,
                "internal_count": 3143,
                "left_child": {
                  "split_index": 26,
                  "split_feature": 8,
                  "split_gain": 34.75490188598633,
                  "threshold": -0.31585349142551417,
                  "decision_type": "<=",
                  "default_left": true,
                  "missing_type": "None",
                  "internal_value": 3.62557e-05,
                  "internal_weight": 661.077,
                  "internal_count": 2942,
                  "left_child": {
                    "leaf_index": 17,
                    "leaf_value": 0.009257221242395112,
                    "leaf_weight": 236.42678114771843,
                    "leaf_count": 1049
                  },
                  "right_child": {
                    "leaf_index": 27,
                    "leaf_value": -0.005091481100450836,
                    "leaf_weight": 424.6505276709795,
                    "leaf_count": 1893
                  }
                },
                "right_child": {
                  "leaf_index": 19,
                  "leaf_value": 0.030790417679917612,
                  "leaf_weight": 45.610780984163284,
                  "leaf_count": 201
                }
              }
            }
          },
          "right_child": {
            "split_index": 2,
            "split_feature": 31,
            "split_gain": 107.41200256347656,
            "threshold": 1.5692427754402163,
            "decision_type": "<=",
            "default_left": true,
            "missing_type": "None",
            "internal_value": -0.0031234,
            "internal_weight": 7388.14,
            "internal_count": 32914,
            "left_child": {
              "split_index": 3,
              "split_feature": 31,
              "split_gain": 88.1719970703125,
              "threshold": 0.44797797501087194,
              "decision_type": "<=",
              "default_left": true,
              "missing_type": "None",
              "internal_value": -0.00216432,
              "internal_weight": 6903.46,
              "internal_count": 30745,
              "left_child": {
                "split_index": 5,
                "split_feature": 11,
                "split_gain": 75.55870056152344,
                "threshold": 0.2950000017881394,
                "decision_type": "<=",
                "default_left": true,
                "missing_type": "None",
                "internal_value": -0.00828057,
                "internal_weight": 1622.62,
                "internal_count": 7241,
                "left_child": {
                  "leaf_index": 1,
                  "leaf_value": -0.0031963080204555454,
                  "leaf_weight": 1004.2478993535042,
                  "leaf_count": 4474
                },
                "right_child": {
                  "leaf_index": 6,
                  "leaf_value": -0.01653083819886506,
                  "leaf_weight": 618.368627011776,
                  "leaf_count": 2767
                }
              },
              "right_child": {
                "split_index": 4,
                "split_feature": 11,
                "split_gain": 110.99199676513672,
                "threshold": 0.49500000476837164,
                "decision_type": "<=",
                "default_left": true,
                "missing_type": "None",
                "internal_value": -0.000284324,
                "internal_weight": 5280.85,
                "internal_count": 23504,
                "left_child": {
                  "split_index": 7,
                  "split_feature": 29,
                  "split_gain": 64.947998046875,
                  "threshold": 14.598205089569094,
                  "decision_type": "<=",
                  "default_left": true,
                  "missing_type": "None",
                  "internal_value": 0.00801464,
                  "internal_weight": 1137.65,
                  "internal_count": 5053,
                  "left_child": {
                    "split_index": 28,
                    "split_feature": 28,
                    "split_gain": 33.56890106201172,
                    "threshold": 0.022845056839287285,
                    "decision_type": "<=",
                    "default_left": true,
                    "missing_type": "None",
                    "internal_value": 0.00481905,
                    "internal_weight": 949.544,
                    "internal_count": 4219,
                    "left_child": {
                      "leaf_index": 4,
                      "leaf_value": -0.002344845441814201,
                      "leaf_weight": 362.9584043174982,
                      "leaf_count": 1616
                    },
                    "right_child": {
                      "split_index": 29,
                      "split_feature": 29,
                      "split_gain": 68.3010025024414,
                      "threshold": 2.293740272521973,
                      "decision_type": "<=",
                      "default_left": true,
                      "missing_type": "None",
                      "internal_value": 0.00925658,
                      "internal_weight": 586.585,
                      "internal_count": 2603,
                      "left_child": {
                        "leaf_index": 29,
                        "leaf_value": 0.019121700645003927,
                        "leaf_weight": 304.08472333848476,
                        "leaf_count": 1349
                      },
                      "right_child": {
                        "leaf_index": 30,
                        "leaf_value": -0.0013546716311239968,
                        "leaf_weight": 282.5007207393646,
                        "leaf_count": 1254
                      }
                    }
                  },
                  "right_child": {
                    "split_index": 20,
                    "split_feature": 25,
                    "split_gain": 43.90810012817383,
                    "threshold": 1.0000000180025095e-35,
                    "decision_type": "<=",
                    "default_left": true,
                    "missing_type": "None",
                    "internal_value": 0.0241189,
                    "internal_weight": 188.103,
                    "internal_count": 834,
                    "left_child": {
                      "split_index": 25,
                      "split_feature": 5,
                      "split_gain": 34.8203010559082,
                      "threshold": 0.0005090853956062348,
                      "decision_type": "<=",
                      "default_left": true,
                      "missing_type": "None",
                      "internal_value": 0.0465225,
                      "internal_weight": 55.5192,
                      "internal_count": 246,
                      "left_child": {
                        "leaf_index": 8,
                        "leaf_value": 0.06550246513738188,
                        "leaf_weight": 33.88107351958752,
                        "leaf_count": 150
                      },
                      "right_child": {
                        "leaf_index": 26,
                        "leaf_value": 0.016500828467072435,
                        "leaf_weight": 21.638104155659676,
                        "leaf_count": 96
                      }
                    },
                    "right_child": {
                      "leaf_index": 21,
                      "leaf_value": 0.01468689980821827,
                      "leaf_weight": 132.58355320990086,
                      "leaf_count": 588
                    }
                  }
                },
                "right_child": {
                  "split_index": 9,
                  "split_feature": 3,
                  "split_gain": 60.82210159301758,
                  "threshold": 0.00334215525072068,
                  "decision_type": "<=",
                  "default_left": true,
                  "missing_type": "None",
                  "internal_value": -0.00256393,
                  "internal_weight": 4143.2,
                  "internal_count": 18451,
                  "left_child": {
                    "split_index": 10,
                    "split_feature": 20,
                    "split_gain": 60.910301208496094,
                    "threshold": 15.500000000000002,
                    "decision_type": "<=",
                    "default_left": true,
                    "missing_type": "None",
                    "internal_value": -0.00120416,
                    "internal_weight": 3635.26,
                    "internal_count": 16189,
                    "left_child": {
                      "leaf_index": 5,
                      "leaf_value": -0.009807544714785326,
                      "leaf_weight": 615.2025333195925,
                      "leaf_count": 2744
                    },
                    "right_child": {
                      "split_index": 14,
                      "split_feature": 30,
                      "split_gain": 56.04249954223633,
                      "threshold": 0.08824060857295991,
                      "decision_type": "<=",
                      "default_left": true,
                      "missing_type": "None",
                      "internal_value": 0.000547669,
                      "internal_weight": 3020.06,
                      "internal_count": 13445,
                      "left_child": {
                        "split_index": 19,
                        "split_feature": 30,
                        "split_gain": 44.41120147705078,
                        "threshold": -0.18363955616950986,
                        "decision_type": "<=",
                        "default_left": true,
                        "missing_type": "None",
                        "internal_value": 0.00221985,
                        "internal_weight": 2587.39,
                        "internal_count": 11519,
                        "left_child": {
                          "split_index": 27,
                          "split_feature": 25,
                          "split_gain": 33.93199920654297,
                          "threshold": 0.8750000000000001,
                          "decision_type": "<=",
                          "default_left": true,
                          "missing_type": "None",
                          "internal_value": 0.0193428,
                          "internal_weight": 129.427,
                          "internal_count": 576,
                          "left_child": {
                            "leaf_index": 11,
                            "leaf_value": 0.02718697144617193,
                            "leaf_weight": 102.67247878015041,
                            "leaf_count": 457
                          },
                          "right_child": {
                            "leaf_index": 28,
                            "leaf_value": -0.010636740207049385,
                            "leaf_weight": 26.7548641115427,
                            "leaf_count": 119
                          }
                        },
                        "right_child": {
                          "split_index": 22,
                          "split_feature": 11,
                          "split_gain": 39.604400634765625,
                          "threshold": 0.8449999988079072,
                          "decision_type": "<=",
                          "default_left": true,
                          "missing_type": "None",
                          "internal_value": 0.00131625,
                          "internal_weight": 2457.96,
                          "internal_count": 10943,
                          "left_child": {
                            "leaf_index": 20,
                            "leaf_value": 0.0020858772590309385,
                            "leaf_weight": 2361.8502259105444,
                            "leaf_count": 10514
                          },
                          "right_child": {
                            "leaf_index": 23,
                            "leaf_value": -0.017547727857218955,
                            "leaf_weight": 96.11250865459442,
                            "leaf_count": 429
                          }
                        }
                      },
                      "right_child": {
                        "leaf_index": 15,
                        "leaf_value": -0.009443467724913883,
                        "leaf_weight": 432.66539630293846,
                        "leaf_count": 1926
                      }
                    }
                  },
                  "right_child": {
                    "leaf_index": 10,
                    "leaf_value": -0.012287488922554211,
                    "leaf_weight": 507.94300223886967,
                    "leaf_count": 2262
                  }
                }
              }
            },
            "right_child": {
              "split_index": 8,
              "split_feature": 20,
              "split_gain": 61.1327018737793,
              "threshold": 19.500000000000004,
              "decision_type": "<=",
              "default_left": true,
              "missing_type": "None",
              "internal_value": -0.0167746,
              "internal_weight": 484.678,
              "internal_count": 2169,
              "left_child": {
                "leaf_index": 3,
                "leaf_value": 0.0009558257423351903,
                "leaf_weight": 128.34525802731514,
                "leaf_count": 571
              },
              "right_child": {
                "leaf_index": 9,
                "leaf_value": -0.023167662969946875,
                "leaf_weight": 356.33274364471436,
                "leaf_count": 1598
              }
            }
          }
        }
      },
      {
        "tree_index": 2,
        "num_leaves": 31,
        "num_cat": 0,
        "shrinkage": 0.03,
        "tree_structure": {
          "split_index": 0,
          "split_feature": 20,
          "split_gain": 142.01400756835938,
          "threshold": 14.500000000000002,
          "decision_type": "<=",
          "default_left": true,
          "missing_type": "None",
          "internal_value": -7.9142e-07,
          "internal_weight": 15737.6,
          "internal_count": 70043,
          "left_child": {
            "split_index": 1,
            "split_feature": 20,
            "split_gain": 363.25799560546875,
            "threshold": 3.5000000000000004,
            "decision_type": "<=",
            "default_left": true,
            "missing_type": "None",
            "internal_value": 0.00267711,
            "internal_weight": 8357.17,
            "internal_count": 37129,
            "left_child": {
              "split_index": 6,
              "split_feature": 30,
              "split_gain": 63.885501861572266,
              "threshold": 0.2347597032785416,
              "decision_type": "<=",
              "default_left": true,
              "missing_type": "None",
              "internal_value": -0.00350494,
              "internal_weight": 4226.96,
              "internal_count": 18856,
              "left_child": {
                "split_index": 13,
                "split_feature": 3,
                "split_gain": 53.09619903564453,
                "threshold": 0.0020649329526349906,
                "decision_type": "<=",
                "default_left": true,
                "missing_type": "None",
                "internal_value": -0.00388599,
                "internal_weight": 4182.54,
                "internal_count": 18660,
                "left_child": {
                  "split_index": 14,
                  "split_feature": 11,
                  "split_gain": 53.69960021972656,
                  "threshold": 0.28499999642372137,
                  "decision_type": "<=",
                  "default_left": true,
                  "missing_type": "None",
                  "internal_value": -0.00222211,
                  "internal_weight": 3367.74,
                  "internal_count": 15017,
                  "left_child": {
                    "leaf_index": 0,
                    "leaf_value": 0.0027106032535642085,
                    "leaf_weight": 1248.851612329483,
                    "leaf_count": 5552
                  },
                  "right_child": {
                    "split_index": 15,
                    "split_feature": 7,
                    "split_gain": 57.40129852294922,
                    "threshold": -1.265817046165466,
                    "decision_type": "<=",
                    "default_left": true,
                    "missing_type": "None",
                    "internal_value": -0.00513081,
                    "internal_weight": 2118.89,
                    "internal_count": 9465,
                    "left_child": {
                      "leaf_index": 15,
                      "leaf_value": 0.03485301558426517,
                      "leaf_weight": 31.710098698735237,
                      "leaf_count": 139
                    },
                    "right_child": {
                      "leaf_index": 16,
                      "leaf_value": -0.005741348809743102,
                      "leaf_weight": 2087.181329905987,
                      "leaf_count": 9326
                    }
                  }
                },
                "right_child": {
                  "split_index": 16,
                  "split_feature": 13,
                  "split_gain": 47.6708984375,
                  "threshold": 0.002081383601762355,
                  "decision_type": "<=",
                  "default_left": true,
                  "missing_type": "None",
                  "internal_value": -0.0107584,
                  "internal_weight": 814.798,
                  "internal_count": 3643,
                  "left_child": {
                    "leaf_index": 14,
                    "leaf_value": -0.013397849755145071,
                    "leaf_weight": 719.6936409920454,
                    "leaf_count": 3221
                  },
                  "right_child": {
                    "leaf_index": 17,
                    "leaf_value": 0.009176983482150377,
                    "leaf_weight": 95.10473363101482,
                    "leaf_count": 422
                  }
                }
              },
              "right_child": {
                "split_index": 23,
                "split_feature": 4,
                "split_gain": 36.19419860839844,
                "threshold": 2.1979692974127832e-05,
                "decision_type": "<=",
                "default_left": true,
                "missing_type": "None",
                "internal_value": 0.0322361,
                "internal_weight": 44.4191,
                "internal_count": 196,
                "left_child": {
                  "leaf_index": 7,
                  "leaf_value": 0.013224114635307978,
                  "leaf_weight": 29.977621227502823,
                  "leaf_count": 133
                },
                "right_child": {
                  "leaf_index": 24,
                  "leaf_value": 0.07113259642342466,
                  "leaf_weight": 14.441490635275839,
                  "leaf_count": 63
                }
              }
            },
            "right_child": {
              "split_index": 17,
              "split_feature": 20,
              "split_gain": 46.8744010925293,
              "threshold": 13.500000000000002,
              "decision_type": "<=",
              "default_left": true,
              "missing_type": "None",
              "internal_value": 0.00900464,
              "internal_weight": 4130.21,
              "internal_count": 18273,
              "left_child": {
                "split_index": 18,
                "split_feature": 11,
                "split_gain": 72.9113998413086,
                "threshold": 0.3350000083446503,
                "decision_type": "<=",
                "default_left": true,
                "missing_type": "None",
                "internal_value": 0.0104574,
                "internal_weight": 3423.11,
                "internal_count": 15130,
                "left_child": {
                  "split_index": 19,
                  "split_feature": 3,
                  "split_gain": 50.847599029541016,
                  "threshold": -0.00017030235903803256,
                  "decision_type": "<=",
                  "default_left": true,
                  "missing_type": "None",
                  "internal_value": 0.00383783,
                  "internal_weight": 1042.78,
                  "internal_count": 4619,
                  "left_child": {
                    "split_index": 20,
                    "split_feature": 9,
                    "split_gain": 43.119300842285156,
                    "threshold": 17.554589271545414,
                    "decision_type": "<=",
                    "default_left": true,
                    "missing_type": "None",
                    "internal_value": 0.0126676,
                    "internal_weight": 375.518,
                    "internal_count": 1662,
                    "left_child": {
                      "leaf_index": 2,
                      "leaf_value": 0.019785810608591563,
                      "leaf_weight": 251.94383342564106,
                      "leaf_count": 1115
                    },
                    "right_child": {
                      "split_index": 28,
                      "split_feature": 8,
                      "split_gain": 34.78409957885742,
                      "threshold": -0.09504795446991919,
                      "decision_type": "<=",
                      "default_left": true,
                      "missing_type": "None",
                      "internal_value": -0.00182521,
                      "internal_weight": 123.574,
                      "internal_count": 547,
                      "left_child": {
                        "leaf_index": 21,
                        "leaf_value": 0.01484785171667871,
                        "leaf_weight": 58.77048519253731,
                        "leaf_count": 260
                      },
                      "right_child": {
                        "leaf_index": 29,
                        "leaf_value": -0.016991875427656716,
                        "leaf_weight": 64.80340324342251,
                        "leaf_count": 287
                      }
                    }
                  },
                  "right_child": {
                    "split_index": 25,
                    "split_feature": 30,
                    "split_gain": 35.89440155029297,
                    "threshold": 0.11906055733561517,
                    "decision_type": "<=",
                    "default_left": true,
                    "missing_type": "None",
                    "internal_value": -0.00112796,
                    "internal_weight": 667.264,
                    "internal_count": 2957,
                    "left_child": {
                      "split_index": 29,
                      "split_feature": 30,
                      "split_gain": 34.26190185546875,
                      "threshold": 0.10290040448307992,
                      "decision_type": "<=",
                      "default_left": true,
                      "missing_type": "None",
                      "internal_value": -0.00319168,
                      "internal_weight": 613.578,
                      "internal_count": 2719,
                      "left_child": {
                        "leaf_index": 20,
                        "leaf_value": -0.0019418490077081063,
                        "leaf_weight": 595.3362790942192,
                        "leaf_count": 2638
                      },
                      "right_child": {
                        "leaf_index": 30,
                        "leaf_value": -0.043584323044371494,
                        "leaf_weight": 18.241767793893814,
                        "leaf_count": 81
                      }
                    },
                    "right_child": {
                      "leaf_index": 26,
                      "leaf_value": 0.022364757197257057,
                      "leaf_weight": 53.685571044683456,
                      "leaf_count": 238
                    }
                  }
                },
                "right_child": {
                  "split_index": 21,
                  "split_feature": 14,
                  "split_gain": 39.275699615478516,
                  "threshold": -0.2964696437120437,
                  "decision_type": "<=",
                  "default_left": true,
                  "missing_type": "None",
                  "internal_value": 0.0133557,
                  "internal_weight": 2380.33,
                  "internal_count": 10511,
                  "left_child": {
                    "split_index": 27,
                    "split_feature": 30,
                    "split_gain": 34.98030090332031,
                    "threshold": 0.028415763750672344,
                    "decision_type": "<=",
                    "default_left": true,
                    "missing_type": "None",
                    "internal_value": 0.00808456,
                    "internal_weight": 830.878,
                    "internal_count": 3676,
                    "left_child": {
                      "leaf_index": 19,
                      "leaf_value": 0.004816175034965731,
                      "leaf_weight": 648.8172573149204,
                      "leaf_count": 2871
                    },
                    "right_child": {
                      "leaf_index": 28,
                      "leaf_value": 0.01970674379604686,
                      "leaf_weight": 182.06080266833305,
                      "leaf_count": 805
                    }
                  },
                  "right_child": {
                    "leaf_index": 22,
                    "leaf_value": 0.01617967545404049,
                    "leaf_weight": 1549.4547939151525,
                    "leaf_count": 6835
                  }
                }
              },
              "right_child": {
                "split_index": 22,
                "split_feature": 14,
                "split_gain": 36.877201080322266,
                "threshold": 1.495285511016846,
                "decision_type": "<=",
                "default_left": true,
                "missing_type": "None",
                "internal_value": 0.00196715,
                "internal_weight": 707.095,
                "internal_count": 3143,
                "left_child": {
                  "split_index": 26,
                  "split_feature": 11,
                  "split_gain": 35.32419967651367,
                  "threshold": 0.8050000071525575,
                  "decision_type": "<=",
                  "default_left": true,
                  "missing_type": "None",
                  "internal_value": -0.00387715,
                  "internal_weight": 408.948,
                  "internal_count": 1819,
                  "left_child": {
                    "leaf_index": 18,
                    "leaf_value": 0.010269840683999545,
                    "leaf_weight": 114.19401405751705,
                    "leaf_count": 507
                  },
                  "right_child": {
                    "leaf_index": 27,
                    "leaf_value": -0.009369797201171233,
                    "leaf_weight": 294.75376331806183,
                    "leaf_count": 1312
                  }
                },
                "right_child": {
                  "leaf_index": 23,
                  "leaf_value": 0.009992030186345736,
                  "leaf_weight": 298.1471072137356,
                  "leaf_count": 1324
                }
              }
            }
          },
          "right_child": {
            "split_index": 2,
            "split_feature": 31,
            "split_gain": 101.83000183105469,
            "threshold": 1.5692427754402163,
            "decision_type": "<=",
            "default_left": true,
            "missing_type": "None",
            "internal_value": -0.00303352,
            "internal_weight": 7380.38,
            "internal_count": 32914,
            "left_child": {
              "split_index": 3,
              "split_feature": 31,
              "split_gain": 83.25450134277344,
              "threshold": 0.44797797501087194,
              "decision_type": "<=",
              "default_left": true,
              "missing_type": "None",
              "internal_value": -0.00210145,
              "internal_weight": 6898.41,
              "internal_count": 30745,
              "left_child": {
                "split_index": 5,
                "split_feature": 11,
                "split_gain": 71.76699829101562,
                "threshold": 0.2950000017881394,
                "decision_type": "<=",
                "default_left": true,
                "missing_type": "None",
                "internal_value": -0.00805455,
                "internal_weight": 1618.23,
                "internal_count": 7241,
                "left_child": {
                  "leaf_index": 1,
                  "leaf_value": -0.003103651825539973,
                  "leaf_weight": 1003.2203798890114,
                  "leaf_count": 4474
                },
                "right_child": {
                  "leaf_index": 6,
                  "leaf_value": -0.01612387828751552,
                  "leaf_weight": 615.0107325911522,
                  "leaf_count": 2767
                }
              },
              "right_child": {
                "split_index": 4,
                "split_feature": 11,
                "split_gain": 104.26100158691406,
                "threshold": 0.49500000476837164,
                "decision_type": "<=",
                "default_left": true,
                "missing_type": "None",
                "internal_value": -0.000276306,
                "internal_weight": 5280.18,
                "internal_count": 23504,
                "left_child": {
                  "split_index": 10,
                  "split_feature": 28,
                  "split_gain": 56.45560073852539,
                  "threshold": 0.022845056839287285,
                  "decision_type": "<=",
                  "default_left": true,
                  "missing_type": "None",
                  "internal_value": 0.00775438,
                  "internal_weight": 1140.44,
                  "internal_count": 5053,
                  "left_child": {
                    "leaf_index": 4,
                    "leaf_value": -0.001656821811714593,
                    "leaf_weight": 381.289277613163,
                    "leaf_count": 1698
                  },
                  "right_child": {
                    "split_index": 11,
                    "split_feature": 13,
                    "split_gain": 84.17739868164062,
                    "threshold": 0.0010747268679551782,
                    "decision_type": "<=",
                    "default_left": true,
                    "missing_type": "None",
                    "internal_value": 0.0124848,
                    "internal_weight": 759.147,
                    "internal_count": 3355,
                    "left_child": {
                      "leaf_index": 11,
                      "leaf_value": 0.026605050661045293,
                      "leaf_weight": 253.21656747162342,
                      "leaf_count": 1114
                    },
                    "right_child": {
                      "leaf_index": 12,
                      "leaf_value": 0.005407863776418889,
                      "leaf_weight": 505.9300876259804,
                      "leaf_count": 2241
                    }
                  }
                },
                "right_child": {
                  "split_index": 8,
                  "split_feature": 3,
                  "split_gain": 57.528099060058594,
                  "threshold": 0.00334215525072068,
                  "decision_type": "<=",
                  "default_left": true,
                  "missing_type": "None",
                  "internal_value": -0.00248949,
                  "internal_weight": 4139.74,
                  "internal_count": 18451,
                  "left_child": {
                    "split_index": 9,
                    "split_feature": 11,
                    "split_gain": 57.82229995727539,
                    "threshold": 0.8149999976158143,
                    "decision_type": "<=",
                    "default_left": true,
                    "missing_type": "None",
                    "internal_value": -0.00116883,
                    "internal_weight": 3633.8,
                    "internal_count": 16189,
                    "left_child": {
                      "split_index": 12,
                      "split_feature": 30,
                      "split_gain": 55.742801666259766,
                      "threshold": 0.08824060857295991,
                      "decision_type": "<=",
                      "default_left": true,
                      "missing_type": "None",
                      "internal_value": 0.000591369,
                      "internal_weight": 2986.96,
                      "internal_count": 13294,
                      "left_child": {
                        "split_index": 24,
                        "split_feature": 7,
                        "split_gain": 36.05120086669922,
                        "threshold": 0.22431141883134845,
                        "decision_type": "<=",
                        "default_left": true,
                        "missing_type": "None",
                        "internal_value": 0.00228701,
                        "internal_weight": 2550.83,
                        "internal_count": 11347,
                        "left_child": {
                          "leaf_index": 5,
                          "leaf_value": 0.005328120257637724,
                          "leaf_weight": 1477.1169926971197,
                          "leaf_count": 6565
                        },
                        "right_child": {
                          "leaf_index": 25,
                          "leaf_value": -0.00189399155421268,
                          "leaf_weight": 1073.7129080742598,
                          "leaf_count": 4782
                        }
                      },
                      "right_child": {
                        "leaf_index": 13,
                        "leaf_value": -0.00931734722830169,
                        "leaf_weight": 436.13360702991486,
                        "leaf_count": 1947
                      }
                    },
                    "right_child": {
                      "leaf_index": 10,
                      "leaf_value": -0.009300495737032798,
                      "leaf_weight": 646.8413136899471,
                      "leaf_count": 2895
                    }
                  },
                  "right_child": {
                    "leaf_index": 9,
                    "leaf_value": -0.011966874233307818,
                    "leaf_weight": 505.93866585195065,
                    "leaf_count": 2262
                  }
                }
              }
            },
            "right_child": {
              "split_index": 7,
              "split_feature": 20,
              "split_gain": 58.28919982910156,
              "threshold": 19.500000000000004,
              "decision_type": "<=",
              "default_left": true,
              "missing_type": "None",
              "internal_value": -0.0163646,
              "internal_weight": 481.971,
              "internal_count": 2169,
              "left_child": {
                "leaf_index": 3,
                "leaf_value": 0.0009268854665134284,
                "leaf_weight": 128.38421022891998,
                "leaf_count": 571
              },
              "right_child": {
                "leaf_index": 8,
                "leaf_value": -0.022649964433325696,
                "leaf_weight": 353.58716601133347,
                "leaf_count": 1598
              }
            }
          }
        }
      },
      {
        "tree_index": 3,
        "num_leaves": 31,
        "num_cat": 0,
        "shrinkage": 0.03,
        "tree_structure": {
          "split_index": 0,
          "split_feature": 31,
          "split_gain": 135.4759979248047,
          "threshold": 0.912544757127762,
          "decision_type": "<=",
          "default_left": true,
          "missing_type": "None",
          "internal_value": -1.2744e-06,
          "internal_weight": 15736,
          "internal_count": 70043,
          "left_child": {
            "split_index": 2,
            "split_feature": 31,
            "split_gain": 57.03810119628906,
            "threshold": 0.44797797501087194,
            "decision_type": "<=",
            "default_left": true,
            "missing_type": "None",
            "internal_value": -0.00274383,
            "internal_weight": 7985.34,
            "internal_count": 35608,
            "left_child": {
              "split_index": 3,
              "split_feature": 11,
              "split_gain": 73.33989715576172,
              "threshold": 0.2950000017881394,
              "decision_type": "<=",
              "default_left": true,
              "missing_type": "None",
              "internal_value": -0.00757738,
              "internal_weight": 1723.24,
              "internal_count": 7728,
              "left_child": {
                "split_index": 17,
                "split_feature": 5,
                "split_gain": 30.677400588989258,
                "threshold": 0.0005856484349351377,
                "decision_type": "<=",
                "default_left": true,
                "missing_type": "None",
                "internal_value": -0.00261968,
                "internal_weight": 1050.33,
                "internal_count": 4688,
                "left_child": {
                  "leaf_index": 0,
                  "leaf_value": -0.000853025529021514,
                  "leaf_weight": 939.3244673907757,
                  "leaf_count": 4190
                },
                "right_child": {
                  "split_index": 21,
                  "split_feature": 6,
                  "split_gain": 28.644500732421875,
                  "threshold": 61.72502708435059,
                  "decision_type": "<=",
                  "default_left": true,
                  "missing_type": "None",
                  "internal_value": -0.0175282,
                  "internal_weight": 111.002,
                  "internal_count": 498,
                  "left_child": {
                    "leaf_index": 18,
                    "leaf_value": -0.022115711747254047,
                    "leaf_weight": 101.86471299827099,
                    "leaf_count": 457
                  },
                  "right_child": {
                    "leaf_index": 22,
                    "leaf_value": 0.03297328960848001,
                    "leaf_weight": 9.137663573026655,
                    "leaf_count": 41
                  }
                }
              },
              "right_child": {
                "leaf_index": 4,
                "leaf_value": -0.015309746824389422,
                "leaf_weight": 672.9082786440849,
                "leaf_count": 3040
              }
            },
            "right_child": {
              "split_index": 4,
              "split_feature": 11,
              "split_gain": 73.17259979248047,
              "threshold": 0.7950000166893006,
              "decision_type": "<=",
              "default_left": true,
              "missing_type": "None",
              "internal_value": -0.00141313,
              "internal_weight": 6262.11,
              "internal_count": 27880,
              "left_child": {
                "split_index": 6,
                "split_feature": 11,
                "split_gain": 45.424198150634766,
                "threshold": 0.23499999940395358,
                "decision_type": "<=",
                "default_left": true,
                "missing_type": "None",
                "internal_value": -0.000226234,
                "internal_weight": 5523.05,
                "internal_count": 24568,
                "left_child": {
                  "split_index": 11,
                  "split_feature": 29,
                  "split_gain": 36.18069839477539,
                  "threshold": 6.186450719833375,
                  "decision_type": "<=",
                  "default_left": true,
                  "missing_type": "None",
                  "internal_value": 0.00707813,
                  "internal_weight": 672.684,
                  "internal_count": 2980,
                  "left_child": {
                    "leaf_index": 3,
                    "leaf_value": 0.004047008783552044,
                    "leaf_weight": 565.8755676746368,
                    "leaf_count": 2511
                  },
                  "right_child": {
                    "leaf_index": 12,
                    "leaf_value": 0.023090293043040742,
                    "leaf_weight": 106.80818715691566,
                    "leaf_count": 469
                  }
                },
                "right_child": {
                  "split_index": 7,
                  "split_feature": 3,
                  "split_gain": 46.40599822998047,
                  "threshold": 0.002095172530971468,
                  "decision_type": "<=",
                  "default_left": true,
                  "missing_type": "None",
                  "internal_value": -0.00124,
                  "internal_weight": 4850.37,
                  "internal_count": 21588,
                  "left_child": {
                    "split_index": 10,
                    "split_feature": 7,
                    "split_gain": 38.797000885009766,
                    "threshold": -0.267420545220375,
                    "decision_type": "<=",
                    "default_left": true,
                    "missing_type": "None",
                    "internal_value": 0.00030464,
                    "internal_weight": 3797.25,
                    "internal_count": 16887,
                    "left_child": {
                      "leaf_index": 7,
                      "leaf_value": 0.00650379977558819,
                      "leaf_weight": 733.1980118453503,
                      "leaf_count": 3257
                    },
                    "right_child": {
                      "leaf_index": 11,
                      "leaf_value": -0.0011779436282995381,
                      "leaf_weight": 3064.051878362894,
                      "leaf_count": 13630
                    }
                  },
                  "right_child": {
                    "split_index": 8,
                    "split_feature": 29,
                    "split_gain": 45.38859939575195,
                    "threshold": 30.33529376983643,
                    "decision_type": "<=",
                    "default_left": true,
                    "missing_type": "None",
                    "internal_value": -0.00681187,
                    "internal_weight": 1053.12,
                    "internal_count": 4701,
                    "left_child": {
                      "split_index": 23,
                      "split_feature": 7,
                      "split_gain": 26.531999588012695,
                      "threshold": -0.8846190571784972,
                      "decision_type": "<=",
                      "default_left": true,
                      "missing_type": "None",
                      "internal_value": -0.00743029,
                      "internal_weight": 1043,
                      "internal_count": 4657,
                      "left_child": {
                        "split_index": 24,
                        "split_feature": 3,
                        "split_gain": 27.885099411010742,
                        "threshold": 0.007237435318529607,
                        "decision_type": "<=",
                        "default_left": true,
                        "missing_type": "None",
                        "internal_value": 0.00780429,
                        "internal_weight": 93.3852,
                        "internal_count": 416,
                        "left_child": {
                          "leaf_index": 8,
                          "leaf_value": 0.0015306635024858162,
                          "leaf_weight": 81.66387677192688,
                          "leaf_count": 364
                        },
                        "right_child": {
                          "leaf_index": 25,
                          "leaf_value": 0.05087675058018328,
                          "leaf_weight": 11.721371144056318,
                          "leaf_count": 52
                        }
                      },
                      "right_child": {
                        "leaf_index": 24,
                        "leaf_value": -0.008932286998585814,
                        "leaf_weight": 949.6126977950335,
                        "leaf_count": 4241
                      }
                    },
                    "right_child": {
                      "leaf_index": 9,
                      "leaf_value": 0.056065158019884855,
                      "leaf_weight": 10.122431665658949,
                      "leaf_count": 44
                    }
                  }
                }
              },
              "right_child": {
                "leaf_index": 5,
                "leaf_value": -0.010277734235961913,
                "leaf_weight": 739.05153003335,
                "leaf_count": 3312
              }
            }
          },
          "right_child": {
            "split_index": 1,
            "split_feature": 3,
            "split_gain": 67.97250366210938,
            "threshold": 0.0021317021455615763,
            "decision_type": "<=",
            "default_left": true,
            "missing_type": "None",
            "internal_value": 0.00282394,
            "internal_weight": 7750.65,
            "internal_count": 34435,
            "left_child": {
              "split_index": 5,
              "split_feature": 29,
              "split_gain": 46.76430130004883,
              "threshold": 0.5832936167716981,
              "decision_type": "<=",
              "default_left": true,
              "missing_type": "None",
              "internal_value": 0.0041648,
              "internal_weight": 6313.03,
              "internal_count": 28024,
              "left_child": {
                "split_index": 9,
                "split_feature": 29,
                "split_gain": 41.389400482177734,
                "threshold": -3.2707848548889156,
                "decision_type": "<=",
                "default_left": true,
                "missing_type": "None",
                "internal_value": 0.00205411,
                "internal_weight": 3785.96,
                "internal_count": 16812,
                "left_child": {
                  "split_index": 12,
                  "split_feature": 3,
                  "split_gain": 35.905399322509766,
                  "threshold": -0.008932935073971747,
                  "decision_type": "<=",
                  "default_left": true,
                  "missing_type": "None",
                  "internal_value": 0.0065467,
                  "internal_weight": 1240.68,
                  "internal_count": 5501,
                  "left_child": {
                    "split_index": 16,
                    "split_feature": 25,
                    "split_gain": 31.355300903320312,
                    "threshold": 0.8750000000000001,
                    "decision_type": "<=",
                    "default_left": true,
                    "missing_type": "None",
                    "internal_value": 0.0366516,
                    "internal_weight": 34.5986,
                    "internal_count": 154,
                    "left_child": {
                      "leaf_index": 1,
                      "leaf_value": 0.009605497931703316,
                      "leaf_weight": 18.42663125693798,
                      "leaf_count": 82
                    },
                    "right_child": {
                      "leaf_index": 17,
                      "leaf_value": 0.0670354666263397,
                      "leaf_weight": 16.172000899910927,
                      "leaf_count": 72
                    }
                  },
                  "right_child": {
                    "split_index": 13,
                    "split_feature": 3,
                    "split_gain": 33.183799743652344,
                    "threshold": -0.0010666205198504029,
                    "decision_type": "<=",
                    "default_left": true,
                    "missing_type": "None",
                    "internal_value": 0.00567764,
                    "internal_weight": 1206.08,
                    "internal_count": 5347,
                    "left_child": {
                      "split_index": 28,
                      "split_feature": 30,
                      "split_gain": 25.550500869750977,
                      "threshold": -1.0000000180025095e-35,
                      "decision_type": "<=",
                      "default_left": true,
                      "missing_type": "None",
                      "internal_value": 0.0017471,
                      "internal_weight": 743.47,
                      "internal_count": 3301,
                      "left_child": {
                        "split_index": 29,
                        "split_feature": 30,
                        "split_gain": 27.86840057373047,
                        "threshold": -0.09044892713427542,
                        "decision_type": "<=",
                        "default_left": true,
                        "missing_type": "None",
                        "internal_value": 0.012492,
                        "internal_weight": 157.034,
                        "internal_count": 696,
                        "left_child": {
                          "leaf_index": 13,
                          "leaf_value": 0.0009613467194833578,
                          "leaf_weight": 85.97999347746372,
                          "leaf_count": 381
                        },
                        "right_child": {
                          "leaf_index": 30,
                          "leaf_value": 0.026381705534500175,
                          "leaf_weight": 71.05364239215851,
                          "leaf_count": 315
                        }
                      },
                      "right_child": {
                        "leaf_index": 29,
                        "leaf_value": -0.0011266375907573332,
                        "leaf_weight": 586.4367228001356,
                        "leaf_count": 2605
                      }
                    },
                    "right_child": {
                      "split_index": 14,
                      "split_feature": 11,
                      "split_gain": 33.0786018371582,
                      "threshold": 0.8050000071525575,
                      "decision_type": "<=",
                      "default_left": true,
                      "missing_type": "None",
                      "internal_value": 0.0119862,
                      "internal_weight": 462.611,
                      "internal_count": 2046,
                      "left_child": {
                        "leaf_index": 14,
                        "leaf_value": 0.014151974691971572,
                        "leaf_weight": 431.30707509815693,
                        "leaf_count": 1907
                      },
                      "right_child": {
                        "leaf_index": 15,
                        "leaf_value": -0.017707508272177104,
                        "leaf_weight": 31.304276019334793,
                        "leaf_count": 139
                      }
                    }
                  }
                },
                "right_child": {
                  "split_index": 25,
                  "split_feature": 13,
                  "split_gain": 26.23189926147461,
                  "threshold": 0.0007393626437988133,
                  "decision_type": "<=",
                  "default_left": true,
                  "missing_type": "None",
                  "internal_value": -0.000134769,
                  "internal_weight": 2545.28,
                  "internal_count": 11311,
                  "left_child": {
                    "leaf_index": 10,
                    "leaf_value": 0.00521890481417217,
                    "leaf_weight": 621.9977991729975,
                    "leaf_count": 2761
                  },
                  "right_child": {
                    "split_index": 26,
                    "split_feature": 9,
                    "split_gain": 28.1343994140625,
                    "threshold": 16.845159530639652,
                    "decision_type": "<=",
                    "default_left": true,
                    "missing_type": "None",
                    "internal_value": -0.00186791,
                    "internal_weight": 1923.29,
                    "internal_count": 8550,
                    "left_child": {
                      "split_index": 27,
                      "split_feature": 11,
                      "split_gain": 25.943099975585938,
                      "threshold": 0.884999990463257,
                      "decision_type": "<=",
                      "default_left": true,
                      "missing_type": "None",
                      "internal_value": -0.0058543,
                      "internal_weight": 871.517,
                      "internal_count": 3875,
                      "left_child": {
                        "leaf_index": 26,
                        "leaf_value": -0.00476673533307952,
                        "leaf_weight": 835.0749049335718,
                        "leaf_count": 3713
                      },
                      "right_child": {
                        "leaf_index": 28,
                        "leaf_value": -0.030612743521617712,
                        "leaf_weight": 36.44192664325237,
                        "leaf_count": 162
                      }
                    },
                    "right_child": {
                      "leaf_index": 27,
                      "leaf_value": 0.0014326868499410506,
                      "leaf_weight": 1051.7691050767899,
                      "leaf_count": 4675
                    }
                  }
                }
              },
              "right_child": {
                "split_index": 15,
                "split_feature": 16,
                "split_gain": 32.23939895629883,
                "threshold": 0.0004640107799787075,
                "decision_type": "<=",
                "default_left": true,
                "missing_type": "None",
                "internal_value": 0.00732557,
                "internal_weight": 2527.07,
                "internal_count": 11212,
                "left_child": {
                  "leaf_index": 6,
                  "leaf_value": 0.009257863630190889,
                  "leaf_weight": 1907.0446675866842,
                  "leaf_count": 8456
                },
                "right_child": {
                  "leaf_index": 16,
                  "leaf_value": 0.001376921159377569,
                  "leaf_weight": 620.0233767479658,
                  "leaf_count": 2756
                }
              }
            },
            "right_child": {
              "split_index": 18,
              "split_feature": 13,
              "split_gain": 29.14389991760254,
              "threshold": 0.004769793245941401,
              "decision_type": "<=",
              "default_left": true,
              "missing_type": "None",
              "internal_value": -0.00306199,
              "internal_weight": 1437.62,
              "internal_count": 6411,
              "left_child": {
                "split_index": 19,
                "split_feature": 29,
                "split_gain": 35.99209976196289,
                "threshold": 1.3805305957794192,
                "decision_type": "<=",
                "default_left": true,
                "missing_type": "None",
                "internal_value": -0.00180083,
                "internal_weight": 1322.88,
                "internal_count": 5898,
                "left_child": {
                  "split_index": 22,
                  "split_feature": 11,
                  "split_gain": 26.91390037536621,
                  "threshold": 0.6150000095367433,
                  "decision_type": "<=",
                  "default_left": true,
                  "missing_type": "None",
                  "internal_value": -0.009854,
                  "internal_weight": 362.548,
                  "internal_count": 1622,
                  "left_child": {
                    "leaf_index": 2,
                    "leaf_value": -0.011730221189574938,
                    "leaf_weight": 344.54973597824574,
                    "leaf_count": 1542
                  },
                  "right_child": {
                    "leaf_index": 23,
                    "leaf_value": 0.02576337436403766,
                    "leaf_weight": 17.998604595661163,
                    "leaf_count": 80
                  }
                },
                "right_child": {
                  "split_index": 20,
                  "split_feature": 9,
                  "split_gain": 28.90060043334961,
                  "threshold": 10.611395835876467,
                  "decision_type": "<=",
                  "default_left": true,
                  "missing_type": "None",
                  "internal_value": 0.00123702,
                  "internal_weight": 960.331,
                  "internal_count": 4276,
                  "left_child": {
                    "leaf_index": 20,
                    "leaf_value": 0.03924422249435122,
                    "leaf_weight": 17.57674264907837,
                    "leaf_count": 78
                  },
                  "right_child": {
                    "leaf_index": 21,
                    "leaf_value": 0.0005211405327004941,
                    "leaf_weight": 942.7542863488197,
                    "leaf_count": 4198
                  }
                }
              },
              "right_child": {
                "leaf_index": 19,
                "leaf_value": -0.01756169650233804,
                "leaf_weight": 114.74228926002979,
                "leaf_count": 513
              }
            }
          }
        }
      },
      {
        "tree_index": 4,
        "num_leaves": 31,
        "num_cat": 0,
        "shrinkage": 0.03,
        "tree_structure": {
          "split_index": 0,
          "split_feature": 20,
          "split_gain": 129.16000366210938,
          "threshold": 14.500000000000002,
          "decision_type": "<=",
          "default_left": true,
          "missing_type": "None",
          "internal_value": -1.48386e-06,
          "internal_weight": 15735.1,
          "internal_count": 70043,
          "left_child": {
            "split_index": 1,
            "split_feature": 20,
            "split_gain": 336.3699951171875,
            "threshold": 3.5000000000000004,
            "decision_type": "<=",
            "default_left": true,
            "missing_type": "None",
            "internal_value": 0.00254891,
            "internal_weight": 8367.01,
            "internal_count": 37129,
            "left_child": {
              "split_index": 6,
              "split_feature": 30,
              "split_gain": 59.47679901123047,
              "threshold": 0.2347597032785416,
              "decision_type": "<=",
              "default_left": true,
              "missing_type": "None",
              "internal_value": -0.00341035,
              "internal_weight": 4222.16,
              "internal_count": 18856,
              "left_child": {
                "split_index": 11,
                "split_feature": 3,
                "split_gain": 47.4197998046875,
                "threshold": 0.0019095427705906334,
                "decision_type": "<=",
                "default_left": true,
                "missing_type": "None",
                "internal_value": -0.00378025,
                "internal_weight": 4177.31,
                "internal_count": 18660,
                "left_child": {
                  "leaf_index": 0,
                  "leaf_value": -0.0020981774380050312,
                  "leaf_weight": 3272.451030611992,
                  "leaf_count": 14594
                },
                "right_child": {
                  "split_index": 19,
                  "split_feature": 13,
                  "split_gain": 42.54629898071289,
                  "threshold": 0.002081383601762355,
                  "decision_type": "<=",
                  "default_left": true,
                  "missing_type": "None",
                  "internal_value": -0.00985931,
                  "internal_weight": 904.859,
                  "internal_count": 4066,
                  "left_child": {
                    "leaf_index": 12,
                    "leaf_value": -0.0121616395869555,
                    "leaf_weight": 804.2481324076653,
                    "leaf_count": 3620
                  },
                  "right_child": {
                    "leaf_index": 20,
                    "leaf_value": 0.008508842432280568,
                    "leaf_weight": 100.61040124297142,
                    "leaf_count": 446
                  }
                }
              },
              "right_child": {
                "split_index": 29,
                "split_feature": 4,
                "split_gain": 33.000999450683594,
                "threshold": 1.7040302736859306e-05,
                "decision_type": "<=",
                "default_left": true,
                "missing_type": "None",
                "internal_value": 0.0309076,
                "internal_weight": 44.8498,
                "internal_count": 196,
                "left_child": {
                  "leaf_index": 7,
                  "leaf_value": 0.011423779688566692,
                  "leaf_weight": 28.7313202470541,
                  "leaf_count": 127
                },
                "right_child": {
                  "leaf_index": 30,
                  "leaf_value": 0.06516810702330203,
                  "leaf_weight": 16.118438720703125,
                  "leaf_count": 69
                }
              }
            },
            "right_child": {
              "split_index": 17,
              "split_feature": 20,
              "split_gain": 42.81700134277344,
              "threshold": 13.500000000000002,
              "decision_type": "<=",
              "default_left": true,
              "missing_type": "None",
              "internal_value": 0.00861998,
              "internal_weight": 4144.85,
              "internal_count": 18273,
              "left_child": {
                "split_index": 18,
                "split_feature": 20,
                "split_gain": 67.78350067138672,
                "threshold": 4.500000000000001,
                "decision_type": "<=",
                "default_left": true,
                "missing_type": "None",
                "internal_value": 0.0100036,
                "internal_weight": 3437.27,
                "internal_count": 15130,
                "left_child": {
                  "leaf_index": 2,
                  "leaf_value": 0.003788241149815422,
                  "leaf_weight": 1083.1122944206,
                  "leaf_count": 4795
                },
                "right_child": {
                  "split_index": 24,
                  "split_feature": 13,
                  "split_gain": 34.05730056762695,
                  "threshold": 0.001336635439656675,
